9 64
1 -0.063625 0.335610 -0.504453 -0.181758 -0.220493 -0.384330 -0.237903 -0.104264 0.094822 0.141381 -0.096982 0.242640 -0.331812 0.191869 -0.263940 -0.126072 -0.179649 0.189894 -0.059028 -0.088397 0.263873 0.395438 -0.167669 0.521873 0.203806 0.514737 -0.169444 -0.354741 -0.338060 0.097578 -0.186233 0.214677 0.219076 0.050295 0.153452 -0.061176 0.313753 0.288105 -0.250468 0.413617 0.352725 -0.003067 0.131705 0.251149 -0.061999 0.107022 0.569969 -0.070870 -0.204239 -0.452363 -0.655847 -0.128740 -0.321258 -0.044325 -0.166377 -0.384724 0.096923 -0.104341 -0.091361 0.164648 -0.375953 -0.000257 0.252431 -0.171564
7 -0.144917 -0.308241 0.429154 0.267369 -0.273638 -0.174617 0.055013 -0.013163 -0.231352 -0.144427 0.218077 -0.062141 0.212035 0.118227 -0.214212 0.432266 0.284528 -0.147856 -0.592944 -0.124923 -0.067330 -0.162761 -0.149507 -0.553295 -0.100589 -0.375644 -0.349100 0.006661 0.053826 0.248349 -0.240460 -0.421432 0.178856 0.035893 0.015119 0.006643 -0.317306 -0.049921 -0.289360 -0.299419 0.271199 0.380114 -0.811665 0.293438 -0.632488 -0.273502 -0.524009 -0.065019 0.203379 0.382258 0.418401 0.407925 0.308392 -0.205394 0.110837 -0.280676 -0.041345 -0.096576 0.081900 0.090768 0.105438 0.255141 -0.076071 0.150602
5 0.205110 -0.175905 0.141941 -0.166137 0.453153 0.687801 0.074583 0.215844 0.031946 -0.114975 -0.178202 -0.179028 0.113382 -0.225019 0.508955 -0.259660 -0.021637 -0.051031 0.590226 0.155748 -0.150805 -0.165618 0.445444 -0.248118 -0.206601 -0.308792 0.503400 0.393635 0.503746 -0.322605 0.458151 0.057025 -0.393607 -0.179125 -0.101633 -0.031358 -0.085755 -0.343947 0.508054 -0.240041 -0.752168 -0.401012 0.584819 -0.615708 0.664603 0.090771 -0.140519 0.116154 0.025057 0.136708 0.546700 -0.243334 0.038722 0.159984 0.082285 0.729603 0.038410 0.112582 0.223911 -0.409842 0.382849 -0.280985 -0.131690 0.065509
6 0.134063 -0.234944 -0.016852 -0.355897 0.356100 0.638981 -0.153431 0.292084 -0.017907 -0.113963 -0.315838 -0.083290 -0.041871 -0.072405 0.404288 -0.314048 -0.056874 -0.008390 0.570221 -0.030860 0.111974 0.069578 0.643001 -0.349853 -0.256314 -0.324690 0.442236 0.271156 0.645130 -0.299663 0.363876 -0.036117 -0.395054 -0.312540 0.036746 -0.213817 0.022082 -0.310909 0.423108 -0.118466 -0.722077 -0.371954 0.517518 -0.568426 0.595216 -0.024121 0.010185 0.065331 0.003082 0.035741 0.664592 -0.292036 -0.154893 0.115620 -0.078824 0.637656 0.245548 0.034662 0.501805 -0.476148 0.312414 -0.322230 0.069131 -0.062789
8 -0.229370 -0.437232 0.311980 0.100418 -0.296000 -0.156340 -0.122849 0.095252 -0.256064 -0.137832 0.084309 -0.019851 0.088956 0.235794 -0.320100 0.364123 0.258697 -0.166055 -0.537148 -0.349663 0.196383 0.000257 0.138947 -0.733354 -0.156515 -0.470937 -0.360949 -0.106687 0.250503 0.273724 -0.354111 -0.546848 0.099510 -0.111813 0.132719 -0.186107 -0.213622 -0.037287 -0.329125 -0.229240 0.264246 0.427337 -0.889489 0.303414 -0.696025 -0.437725 -0.445023 -0.097581 0.217643 0.363410 0.661772 0.352006 0.110302 -0.225129 -0.064549 -0.297757 0.169973 -0.155092 0.409608 0.022846 0.081205 0.178137 0.091598 0.007198
9 -0.182952 -0.413732 0.423961 0.202609 -0.216096 -0.108701 0.015362 0.063948 -0.224790 -0.132052 0.163870 -0.076358 0.196189 0.116971 -0.229553 0.374018 0.268139 -0.193116 -0.488940 -0.236779 0.047220 -0.144351 0.054444 -0.680670 -0.143195 -0.485096 -0.307892 -0.004929 0.194840 0.229680 -0.269005 -0.490048 0.064812 -0.059173 0.045478 -0.088624 -0.269020 -0.079402 -0.240946 -0.294639 0.211972 0.396983 -0.828234 0.240785 -0.618406 -0.365408 -0.537604 -0.071174 0.227747 0.428829 0.621887 0.361362 0.229690 -0.172173 0.021898 -0.198981 0.055238 -0.095667 0.255655 0.052830 0.141844 0.198719 -0.027177 0.078043
3 -0.007370 0.404179 -0.375735 -0.011371 -0.130964 -0.367682 -0.033192 -0.185926 0.152391 0.160600 0.022979 0.168729 -0.199483 0.042826 -0.170095 -0.101083 -0.173118 0.159248 -0.032579 0.085118 0.042216 0.185368 -0.349757 0.656786 0.243417 0.542721 -0.110725 -0.241773 -0.480171 0.055037 -0.091950 0.322809 0.205821 0.168189 0.028123 0.105753 0.233011 0.263947 -0.164856 0.342574 0.336484 -0.029611 0.207802 0.227791 0.014912 0.213521 0.460679 -0.019041 -0.180084 -0.384353 -0.803516 -0.102416 -0.163808 0.012661 -0.044616 -0.323940 -0.085764 -0.007145 -0.355574 0.234865 -0.332421 0.050455 0.083645 -0.084465
4 -0.007092 0.401946 -0.350794 0.008555 -0.149276 -0.380396 -0.024483 -0.182736 0.148218 0.161468 0.039702 0.162760 -0.188655 0.047956 -0.175981 -0.074364 -0.149922 0.161616 -0.057966 0.085515 0.029157 0.172617 -0.364779 0.636551 0.237223 0.541470 -0.120797 -0.253000 -0.490350 0.064530 -0.117691 0.308046 0.216452 0.182123 0.023680 0.112827 0.229115 0.278436 -0.173127 0.332330 0.360760 -0.011652 0.171418 0.242150 -0.024684 0.206476 0.434486 -0.020368 -0.174726 -0.357640 -0.791142 -0.084609 -0.145118 0.012059 -0.047954 -0.337019 -0.089289 -0.006254 -0.367224 0.253084 -0.333649 0.066173 0.079994 -0.067539
2 0.009123 0.424601 -0.361127 0.000505 -0.095868 -0.339573 0.002322 -0.199007 0.155993 0.170331 0.027457 0.145832 -0.173979 0.014549 -0.129077 -0.101212 -0.167281 0.164205 0.002156 0.115475 -0.001797 0.165061 -0.365837 0.688610 0.251877 0.557076 -0.087093 -0.210913 -0.493169 0.036733 -0.068547 0.342600 0.204879 0.185088 -0.004803 0.129996 0.225781 0.261494 -0.122942 0.330832 0.317343 -0.049387 0.246401 0.204193 0.057482 0.249917 0.446604 -0.016788 -0.176979 -0.374868 -0.830786 -0.104096 -0.141071 0.039320 -0.022670 -0.293054 -0.120159 0.000444 -0.401129 0.230142 -0.315778 0.041452 0.057755 -0.059618
