6 64
1 -0.084978 0.195684 -0.161581 -0.077017 -0.173650 -0.170442 -0.009156 -0.264479 -0.394255 0.139494 -0.033922 -0.210121 0.097141 0.359565 -0.265355 0.658600 0.356076 0.048906 -0.347458 -0.403078 -0.062523 0.448185 -0.216390 -0.042582 0.506314 0.350397 -0.536312 -0.311369 -0.334893 0.519748 -0.692921 -0.450681 0.748498 0.187553 -0.175623 -0.138759 0.028479 0.494904 -0.215055 -0.077661 0.673341 0.475529 -0.612842 0.272991 -0.592472 0.091970 -0.139208 -0.426281 -0.019792 0.096918 -0.319746 0.587475 0.028439 -0.017131 0.192372 -0.353060 -0.233330 -0.631094 -0.119165 0.200563 -0.172781 -0.183763 0.017509 0.363060
4 -0.232535 0.080632 0.082032 -0.015293 0.095278 -0.039596 0.211143 -0.398660 -0.550992 0.234287 -0.066055 -0.392154 0.377412 0.180645 -0.036826 0.705775 0.456991 0.019036 -0.221166 -0.399823 -0.192995 0.413260 -0.151438 -0.008623 0.429226 0.146748 -0.575373 0.063329 -0.198335 0.398941 -0.558495 -0.573839 0.722275 0.146488 -0.414487 -0.085647 -0.150408 0.350994 0.079003 -0.179375 0.638585 0.519897 -0.779945 0.355064 -0.419549 0.201392 -0.431967 -0.497727 0.256879 0.278014 -0.277055 0.686656 0.197198 0.199766 0.267093 -0.370588 -0.416104 -0.636563 -0.239457 0.032308 0.063804 -0.128777 -0.036542 0.433608
5 0.052017 0.080825 0.267983 0.525077 -0.227927 -0.272486 0.246735 0.308233 0.630889 -0.100946 0.489363 0.258283 -0.131265 -0.251539 -0.112627 -0.331648 0.018594 0.077814 -0.011985 0.536742 -0.235420 -0.585001 -0.423337 0.276085 -0.303621 0.203140 0.280117 -0.244010 -0.344614 -0.095301 0.111417 0.546737 -0.371592 0.307159 0.181021 0.485541 0.107922 -0.047952 -0.238160 -0.053535 0.058590 -0.327254 0.193085 0.122984 -0.097557 0.061181 0.086029 0.436777 -0.160454 0.109989 -0.097619 -0.477721 0.245077 -0.122108 -0.136309 -0.052210 0.031734 0.466002 -0.493969 0.352525 -0.003883 0.462987 -0.097204 0.021967
6 0.074216 0.191980 0.244409 0.541258 -0.251262 -0.239986 0.294498 0.367464 0.669942 -0.074803 0.527775 0.222292 -0.151806 -0.204274 -0.106550 -0.258639 0.184750 0.176997 0.058713 0.555381 -0.338317 -0.508069 -0.498646 0.351368 -0.237136 0.424930 0.277223 -0.382905 -0.456573 0.001194 -0.050103 0.561189 -0.244906 0.428834 0.145546 0.547619 0.198047 0.097464 -0.248688 -0.117789 0.182865 -0.382605 0.198613 0.119022 -0.158577 0.199812 0.103513 0.398100 -0.237409 0.169872 -0.177051 -0.492695 0.291459 -0.094499 -0.117643 -0.046192 -0.017241 0.323490 -0.636167 0.408241 0.010337 0.429395 -0.083769 0.209363
7 0.193620 0.236431 -0.447923 -0.504419 0.280801 0.629117 -0.169204 0.278901 0.026779 -0.011726 -0.347288 -0.101525 -0.238998 0.163929 0.299833 -0.155016 0.199441 0.270385 0.739152 -0.073294 -0.031442 0.543188 0.369466 0.130234 0.184326 0.486206 0.302324 -0.175773 0.197292 0.055695 -0.056421 0.074222 0.142834 -0.020532 -0.013789 -0.139863 0.331746 0.152979 0.277528 -0.115380 -0.319246 -0.504269 0.693203 -0.552996 0.537775 0.424993 0.375352 -0.143209 -0.323725 -0.147791 0.045212 -0.298453 -0.231891 0.118221 0.058196 0.543966 0.081057 -0.507751 0.137966 -0.340532 0.168750 -0.562038 0.153997 0.336224
9 0.170019 0.157036 -0.416686 -0.519689 0.277248 0.579313 -0.214185 0.217423 -0.035564 -0.012680 -0.383516 -0.082412 -0.210205 0.145137 0.297433 -0.171947 0.091934 0.209057 0.650453 -0.107399 0.052610 0.505337 0.423407 0.058070 0.126643 0.317142 0.278359 -0.071744 0.280048 -0.019647 0.031831 0.030607 0.072829 -0.111590 0.000673 -0.201177 0.264653 0.069930 0.292127 -0.047954 -0.375317 -0.424672 0.636691 -0.519913 0.541343 0.310234 0.341467 -0.133547 -0.246384 -0.178681 0.101370 -0.252073 -0.264329 0.114158 0.024198 0.502430 0.120777 -0.402116 0.247265 -0.372464 0.142173 -0.522694 0.160307 0.198844
